{
  "config": {
    "n_embd": 24,
    "n_head": 4,
    "n_kv_head": 2,
    "n_layer": 2,
    "sequence_len": 4,
    "vocab_size": 16,
    "window_pattern": "L"
  },
  "gradients": {
    "backout_lambda": {
      "shape": [
        1
      ],
      "values": [
        -9.546056389808655e-09
      ]
    },
    "lm_head.weight": {
      "shape": [
        64,
        24
      ],
      "values": [
        0.11822677403688431,
        0.11145816743373871,
        0.10468956083059311,
        0.0979209691286087,
        0.0911523625254631,
        0.08438379317522049,
        0.07761520147323608,
        0.07084658741950989,
        0.06407798081636429,
        0.05730939656496048,
        0.05054079741239548,
        0.04377221316099167,
        0.03700359910726547,
        0.03023500181734562,
        0.023466410115361214,
        0.016697801649570465,
        0.009929201565682888,
        0.0031606105621904135,
        -0.003607983933761716,
        -0.010376579128205776,
        -0.017145179212093353,
        -0.02391376905143261,
        -0.03068237192928791,
        -0.03745098412036896,
        0.12369224429130554,
        0.11659661680459976,
        0.10950098186731339,
        0.1024053543806076,
        0.09530975669622421,
        0.08821407705545425,
        0.08111847192049026,
        0.07402283698320389,
        0.06692720204591751,
        0.05983158200979233,
        0.052735958248376846,
        0.045640330761671066,
        0.03854469209909439,
        0.03144906461238861,
        0.02435343526303768,
        0.017257805913686752,
        0.010162184946238995,
        0.003066553035750985,
        -0.004029077012091875,
        -0.011124714277684689,
        -0.018220331519842148,
        -0.025315972045063972,
        -0.032411590218544006,
        -0.03950720652937889,
        0.4021356403827667,
        0.37865498661994934,
        0.3551744222640991,
        0.3316937983036041,
        0.30821314454078674,
        0.28473255038261414,
        0.26125195622444153,
        0.23777134716510773,
        0.21429073810577393,
        0.19081011414527893,
        0.16732951998710632,
        0.14384889602661133,
        0.12036827951669693,
        0.09688767045736313,
        0.07340707629919052,
        0.04992646723985672,
        0.026445843279361725,
        0.002965227933600545,
        -0.02051536738872528,
        -0.04399598762392998,
        -0.06747659295797348,
        -0.09095719456672668,
        -0.11443781107664108,
        -0.1379184126853943,
        0.40731513500213623,
        0.3835226595401764,
        0.35973024368286133,
        0.3359377086162567,
        0.3121453523635864,
        0.288352906703949,
        0.26456040143966675,
        0.2407679408788681,
        0.21697545051574707,
        0.193183034658432,
        0.16939055919647217,
        0.14559808373451233,
        0.12180564552545547,
        0.09801318496465683,
        0.07422073930501938,
        0.05042826384305954,
        0.026635807007551193,
        0.002843348542228341,
        -0.020949121564626694,
        -0.04474157467484474,
        -0.06853403151035309,
        -0.09232650697231293,
        -0.11611893773078918,
        -0.13991141319274902,
        0.13887523114681244,
        0.1308993250131607,
        0.12292339652776718,
        0.11494751274585724,
        0.10697158426046371,
        0.09899566322565079,
        0.09101974219083786,
        0.08304383605718613,
        0.0750679150223732,
        0.06709200888872147,
        0.05911608412861824,
        0.05114016681909561,
        0.04316425696015358,
        0.035188354551792145,
        0.02721243165433407,
        0.01923651620745659,
        0.011260608211159706,
        0.003284683683887124,
        -0.004691229201853275,
        -0.012667137198150158,
        -0.020643051713705063,
        -0.02861896902322769,
        -0.036594878882169724,
        -0.04457081854343414,
        -0.12866486608982086,
        -0.12119394540786743,
        -0.1137230396270752,
        -0.10625211894512177,
        -0.09878120571374893,
        -0.0913102999329567,
        -0.08383938670158386,
        -0.07636846601963043,
        -0.0688975602388382,
        -0.06142665073275566,
        -0.05395573750138283,
        -0.046484824270009995,
        -0.03901391103863716,
        -0.03154299780726433,
        -0.024072086438536644,
        -0.01660117320716381,
        -0.009130262769758701,
        -0.0016593488398939371,
        0.005811563227325678,
        0.01328247506171465,
        0.02075338363647461,
        0.02822430059313774,
        0.03569520637392998,
        0.04316611960530281,
        -0.12419393658638,
        -0.11698257923126221,
        -0.1097712516784668,
        -0.1025599017739296,
        -0.0953485518693924,
        -0.08813720941543579,
        -0.08092586696147919,
        -0.07371451705694199,
        -0.06650318205356598,
        -0.05929183214902878,
        -0.052080485969781876,
        -0.04486913979053497,
        -0.03765779733657837,
        -0.030446453019976616,
        -0.023235110566020012,
        -0.01602376438677311,
        -0.008812420070171356,
        -0.0016010749386623502,
        0.005610269028693438,
        0.012821612879633904,
        0.020032955333590508,
        0.02724430337548256,
        0.034455642104148865,
        0.041666992008686066,
        -0.11987569183111191,
        -0.1129150316119194,
        -0.10595440119504929,
        -0.09899376332759857,
        -0.09203311800956726,
        -0.08507248759269714,
        -0.07811184227466583,
        -0.07115120440721512,
        -0.0641905665397644,
        -0.05722992867231369,
        -0.05026928707957268,
        -0.043308649212121964,
        -0.03634800761938095,
        -0.029387369751930237,
        -0.022426731884479523,
        -0.01546609029173851,
        -0.008505451492965221,
        -0.0015448116464540362,
        0.005415827035903931,
        0.012376466765999794,
        0.019337104633450508,
        0.02629774622619152,
        0.033258382230997086,
        0.0402190275490284,
        -0.11570501327514648,
        -0.108986496925354,
        -0.10226801037788391,
        -0.09554950892925262,
        -0.08883100003004074,
        -0.08211251348257065,
        -0.07539400458335876,
        -0.06867550313472748,
        -0.06195700541138649,
        -0.0552385039627552,
        -0.04851999878883362,
        -0.04180150106549263,
        -0.03508299961686134,
        -0.028364496305584908,
        -0.02164599671959877,
        -0.014927493408322334,
        -0.008208992891013622,
        -0.0014904907438904047,
        0.005228009540587664,
        0.011946511454880238,
        0.0186650101095438,
        0.025383515283465385,
        0.032102011144161224,
        0.03882051259279251,
        -0.11167703568935394,
        -0.1051923856139183,
        -0.09870775043964386,
        -0.09222309291362762,
        -0.08573845773935318,
        -0.07925380766391754,
        -0.0727691575884819,
        -0.06628450751304626,
        -0.05979986488819122,
        -0.05331521853804588,
        -0.04683057218790054,
        -0.0403459258377552,
        -0.03386127948760986,
        -0.027376633137464523,
        -0.020891988649964333,
        -0.014407341368496418,
        -0.007922695018351078,
        -0.0014380477368831635,
        0.005046598147600889,
        0.011531244963407516,
        0.018015889450907707,
        0.024500537663698196,
        0.030985180288553238,
        0.037469830363988876,
        -0.10778698325157166,
        -0.10152818262577057,
        -0.09526938199996948,
        -0.08901058882474899,
        -0.0827517956495285,
        -0.07649299502372742,
        -0.07023419439792633,
        -0.06397539377212524,
        -0.05771660432219505,
        -0.051457807421684265,
        -0.04519900679588318,
        -0.03894020989537239,
        -0.032681409269571304,
        -0.026422612369060516,
        -0.02016381360590458,
        -0.013905015774071217,
        -0.007646217942237854,
        -0.001387419062666595,
        0.0048713781870901585,
        0.011130176484584808,
        0.017388973385095596,
        0.023647772148251534,
        0.029906567186117172,
        0.03616536781191826,
        -0.10403026640415192,
        -0.09798958152532578,
        -0.09194889664649963,
        -0.0859082043170929,
        -0.07986751198768616,
        -0.07382681965827942,
        -0.06778613477945328,
        -0.06174543872475624,
        -0.0557047575712204,
        -0.04966406151652336,
        -0.04362337291240692,
        -0.03758268430829048,
        -0.03154199197888374,
        -0.025501301512122154,
        -0.019460614770650864,
        -0.0134199233725667,
        -0.007379234302788973,
        -0.0013385438360273838,
        0.004702145233750343,
        0.010742835700511932,
        0.016783522441983223,
        0.02282421477138996,
        0.028864901512861252,
        0.03490559384226799,
        -0.10040242969989777,
        -0.09457235783338547,
        -0.08874230086803436,
        -0.08291224390268326,
        -0.07708217203617096,
        -0.07125211507081985,
        -0.06542205065488815,
        -0.05959198996424675,
        -0.05376192554831505,
        -0.04793186113238335,
        -0.04210180416703224,
        -0.03627173975110054,
        -0.03044167533516884,
        -0.024611610919237137,
        -0.018781552091240883,
        -0.012951487675309181,
        -0.007121425587683916,
        -0.0012913625687360764,
        0.004538699518889189,
        0.010368762537837029,
        0.01619882322847843,
        0.022028887644410133,
        0.027858948335051537,
        0.03368901088833809,
        -0.09689915925264359,
        -0.09127248823642731,
        -0.08564583212137222,
        -0.08001915365457535,
        -0.07439249008893967,
        -0.06876581907272339,
        -0.06313915550708771,
        -0.05751248821616173,
        -0.05188582092523575,
        -0.04625915363430977,
        -0.04063249006867409,
        -0.03500582277774811,
        -0.02937915176153183,
        -0.023752486333251,
        -0.01812582090497017,
        -0.01249915361404419,
        -0.00687248632311821,
        -0.0012458182172849774,
        0.004380848258733749,
        0.010007516480982304,
        0.01563418284058571,
        0.021260850131511688,
        0.02688751369714737,
        0.03251418471336365,
        -0.0935162901878357,
        -0.08808602392673492,
        -0.08265577256679535,
        -0.07722550630569458,
        -0.07179524749517441,
        -0.06636498868465424,
        -0.060934726148843765,
        -0.055504463613033295,
        -0.05007420480251312,
        -0.04464394599199295,
        -0.03921368718147278,
        -0.03378342464566231,
        -0.028353160247206688,
        -0.022922899574041367,
        -0.017492640763521194,
        -0.01206237729638815,
        -0.006632117088884115,
        -0.001201855600811541,
        0.004228405188769102,
        0.00965866632759571,
        0.015088925138115883,
        0.020519187673926353,
        0.025949446484446526,
        0.031379710882902145,
        -0.09024979174137115,
        -0.08500918000936508,
        -0.07976856827735901,
        -0.07452796399593353,
        -0.06928735226392746,
        -0.06404674053192139,
        -0.058806128799915314,
        -0.05356552079319954,
        -0.048324909061193466,
        -0.04308430477976799,
        -0.03784369304776192,
        -0.032603081315755844,
        -0.02736247144639492,
        -0.022121861577033997,
        -0.016881253570318222,
        -0.011640641838312149,
        -0.006400031968951225,
        -0.0011594208190217614,
        0.0040811882354319096,
        0.009321799501776695,
        0.014562406577169895,
        0.019803019240498543,
        0.025043627247214317,
        0.03028424084186554,
        -0.0,
        -0.0,
        -0.0,
        -0.0,
        -0.0,
        -0.0,
        -0.0,
        -0.0,
        -0.0,
        -0.0,
        -0.0,
        -0.0,
        -0.0,
        -0.0,
        -0.0,
        -0.0,
        -0.0,
        0.0,
        0.0,
        0.0,
        0.0,
        0.0,
        0.0,
        0.0,
        -0.0,
        -0.0,
        -0.0,
        -0.0,
        -0.0,
        -0.0,
        -0.0,
        -0.0,
        -0.0,
        -0.0,
        -0.0,
        -0.0,
        -0.0,
        -0.0,
        -0.0,
        -0.0,
        -0.0,
        0.0,
        0.0,
        0.0,
        0.0,
        0.0,
        0.0,
        0.0,
        -0.0,
        -0.0,
        -0.0,
        -0.0,
        -0.0,
        -0.0,
        -0.0,
        -0.0,
        -0.0,
        -0.0,
        -0.0,
        -0.0,
        -0.0,
        -0.0,
        -0.0,
        -0.0,
        -0.0,
        0.0,
        0.0,
        0.0,
        0.0,
        0.0,
        0.0,
        0.0,
        -0.0,
        -0.0,
        -0.0,
        -0.0,
        -0.0,
        -0.0,
        -0.0,
        -0.0,
        -0.0,
        -0.0,
        -0.0,
        -0.0,
        -0.0,
        -0.0,
        -0.0,
        -0.0,
        -0.0,
        0.0,
        0.0,
        0.0,
        0.0,
        0.0,
        0.0,
        0.0,
        -0.0,
        -0.0,
        -0.0,
        -0.0,
        -0.0,
        -0.0,
        -0.0,
        -0.0,
        -0.0,
        -0.0,
        -0.0,
        -0.0,
        -0.0,
        -0.0,
        -0.0,
        -0.0,
        -0.0,
        0.0,
        0.0,
        0.0,
        0.0,
        0.0,
        0.0,
        0.0,
        -0.0,
        -0.0,
        -0.0,
        -0.0,
        -0.0,
        -0.0,
        -0.0,
        -0.0,
        -0.0,
        -0.0,
        -0.0,
        -0.0,
        -0.0,
        -0.0,
        -0.0,
        -0.0,
        -0.0,
        0.0,
        0.0,
        0.0,
        0.0,
        0.0,
        0.0,
        0.0,
        -0.0,
        -0.0,
        -0.0,
        -0.0,
        -0.0,
        -0.0,
        -0.0,
        -0.0,
        -0.0,
        -0.0,
        -0.0,
        -0.0,
        -0.0,
        -0.0,
        -0.0,
        -0.0,
        -0.0,
        0.0,
        0.0,
        0.0,
        0.0,
        0.0,
        0.0,
        0.0,
        -0.0,
        -0.0,
        -0.0,
        -0.0,
        -0.0,
        -0.0,
        -0.0,
        -0.0,
        -0.0,
        -0.0,
        -0.0,
        -0.0,
        -0.0,
        -0.0,
        -0.0,
        -0.0,
        -0.0,
        0.0,
        0.0,
        0.0,
        0.0,
        0.0,
        0.0,
        0.0,
        -0.0,
        -0.0,
        -0.0,
        -0.0,
        -0.0,
        -0.0,
        -0.0,
        -0.0,
        -0.0,
        -0.0,
        -0.0,
        -0.0,
        -0.0,
        -0.0,
        -0.0,
        -0.0,
        -0.0,
        0.0,
        0.0,
        0.0,
        0.0,
        0.0,
        0.0,
        0.0,
        -0.0,
        -0.0,
        -0.0,
        -0.0,
        -0.0,
        -0.0,
        -0.0,
        -0.0,
        -0.0,
        -0.0,
        -0.0,
        -0.0,
        -0.0,
        -0.0,
        -0.0,
        -0.0,
        -0.0,
        0.0,
        0.0,
        0.0,
        0.0,
        0.0,
        0.0,
        0.0,
        -0.0,
        -0.0,
        -0.0,
        -0.0,
        -0.0,
        -0.0,
        -0.0,
        -0.0,
        -0.0,
        -0.0,
        -0.0,
        -0.0,
        -0.0,
        -0.0,
        -0.0,
        -0.0,
        -0.0,
        0.0,
        0.0,
        0.0,
        0.0,
        0.0,
        0.0,
        0.0,
        -0.0,
        -0.0,
        -0.0,
        -0.0,
        -0.0,
        -0.0,
        -0.0,
        -0.0,
        -0.0,
        -0.0,
        -0.0,
        -0.0,
        -0.0,
        -0.0,
        -0.0,
        -0.0,
        -0.0,
        0.0,
        0.0,
        0.0,
        0.0,
        0.0,
        0.0,
        0.0,
        -0.0,
        -0.0,
        -0.0,
        -0.0,
        -0.0,
        -0.0,
        -0.0,
        -0.0,
        -0.0,
        -0.0,
        -0.0,
        -0.0,
        -0.0,
        -0.0,
        -0.0,
        -0.0,
        -0.0,
        0.0,
        0.0,
        0.0,
        0.0,
        0.0,
        0.0,
        0.0,
        -0.0,
        -0.0,
        -0.0,
        -0.0,
        -0.0,
        -0.0,
        -0.0,
        -0.0,
        -0.0,
        -0.0,
        -0.0,
        -0.0,
        -0.0,
        -0.0,
        -0.0,
        -0.0,
        -0.0,
        0.0,
        0.0,
        0.0,
        0.0,
        0.0,
        0.0,
        0.0,
        -0.0,
        -0.0,
        -0.0,
        -0.0,
        -0.0,
        -0.0,
        -0.0,
        -0.0,
        -0.0,
        -0.0,
        -0.0,
        -0.0,
        -0.0,
        -0.0,
        -0.0,
        -0.0,
        -0.0,
        0.0,
        0.0,
        0.0,
        0.0,
        0.0,
        0.0,
        0.0,
        -0.0,
        -0.0,
        -0.0,
        -0.0,
        -0.0,
        -0.0,
        -0.0,
        -0.0,
        -0.0,
        -0.0,
        -0.0,
        -0.0,
        -0.0,
        -0.0,
        -0.0,
        -0.0,
        -0.0,
        0.0,
        0.0,
        0.0,
        0.0,
        0.0,
        0.0,
        0.0,
        -0.0,
        -0.0,
        -0.0,
        -0.0,
        -0.0,
        -0.0,
        -0.0,
        -0.0,
        -0.0,
        -0.0,
        -0.0,
        -0.0,
        -0.0,
        -0.0,
        -0.0,
        -0.0,
        -0.0,
        0.0,
        0.0,
        0.0,
        0.0,
        0.0,
        0.0,
        0.0,
        -0.0,
        -0.0,
        -0.0,
        -0.0,
        -0.0,
        -0.0,
        -0.0,
        -0.0,
        -0.0,
        -0.0,
        -0.0,
        -0.0,
        -0.0,
        -0.0,
        -0.0,
        -0.0,
        -0.0,
        0.0,
        0.0,
        0.0,
        0.0,
        0.0,
        0.0,
        0.0,
        -0.0,
        -0.0,
        -0.0,
        -0.0,
        -0.0,
        -0.0,
        -0.0,
        -0.0,
        -0.0,
        -0.0,
        -0.0,
        -0.0,
        -0.0,
        -0.0,
        -0.0,
        -0.0,
        -0.0,
        0.0,
        0.0,
        0.0,
        0.0,
        0.0,
        0.0,
        0.0,
        -0.0,
        -0.0,
        -0.0,
        -0.0,
        -0.0,
        -0.0,
        -0.0,
        -0.0,
        -0.0,
        -0.0,
        -0.0,
        -0.0,
        -0.0,
        -0.0,
        -0.0,
        -0.0,
        -0.0,
        0.0,
        0.0,
        0.0,
        0.0,
        0.0,
        0.0,
        0.0,
        -0.0,
        -0.0,
        -0.0,
        -0.0,
        -0.0,
        -0.0,
        -0.0,
        -0.0,
        -0.0,
        -0.0,
        -0.0,
        -0.0,
        -0.0,
        -0.0,
        -0.0,
        -0.0,
        -0.0,
        0.0,
        0.0,
        0.0,
        0.0,
        0.0,
        0.0,
        0.0,
        -0.0,
        -0.0,
        -0.0,
        -0.0,
        -0.0,
        -0.0,
        -0.0,
        -0.0,
        -0.0,
        -0.0,
        -0.0,
        -0.0,
        -0.0,
        -0.0,
        -0.0,
        -0.0,
        -0.0,
        0.0,
        0.0,
        0.0,
        0.0,
        0.0,
        0.0,
        0.0,
        -0.0,
        -0.0,
        -0.0,
        -0.0,
        -0.0,
        -0.0,
        -0.0,
        -0.0,
        -0.0,
        -0.0,
        -0.0,
        -0.0,
        -0.0,
        -0.0,
        -0.0,
        -0.0,
        -0.0,
        0.0,
        0.0,
        0.0,
        0.0,
        0.0,
        0.0,
        0.0,
        -0.0,
        -0.0,
        -0.0,
        -0.0,
        -0.0,
        -0.0,
        -0.0,
        -0.0,
        -0.0,
        -0.0,
        -0.0,
        -0.0,
        -0.0,
        -0.0,
        -0.0,
        -0.0,
        -0.0,
        0.0,
        0.0,
        0.0,
        0.0,
        0.0,
        0.0,
        0.0,
        -0.0,
        -0.0,
        -0.0,
        -0.0,
        -0.0,
        -0.0,
        -0.0,
        -0.0,
        -0.0,
        -0.0,
        -0.0,
        -0.0,
        -0.0,
        -0.0,
        -0.0,
        -0.0,
        -0.0,
        0.0,
        0.0,
        0.0,
        0.0,
        0.0,
        0.0,
        0.0,
        -0.0,
        -0.0,
        -0.0,
        -0.0,
        -0.0,
        -0.0,
        -0.0,
        -0.0,
        -0.0,
        -0.0,
        -0.0,
        -0.0,
        -0.0,
        -0.0,
        -0.0,
        -0.0,
        -0.0,
        0.0,
        0.0,
        0.0,
        0.0,
        0.0,
        0.0,
        0.0,
        -0.0,
        -0.0,
        -0.0,
        -0.0,
        -0.0,
        -0.0,
        -0.0,
        -0.0,
        -0.0,
        -0.0,
        -0.0,
        -0.0,
        -0.0,
        -0.0,
        -0.0,
        -0.0,
        -0.0,
        0.0,
        0.0,
        0.0,
        0.0,
        0.0,
        0.0,
        0.0,
        -0.0,
        -0.0,
        -0.0,
        -0.0,
        -0.0,
        -0.0,
        -0.0,
        -0.0,
        -0.0,
        -0.0,
        -0.0,
        -0.0,
        -0.0,
        -0.0,
        -0.0,
        -0.0,
        -0.0,
        0.0,
        0.0,
        0.0,
        0.0,
        0.0,
        0.0,
        0.0,
        -0.0,
        -0.0,
        -0.0,
        -0.0,
        -0.0,
        -0.0,
        -0.0,
        -0.0,
        -0.0,
        -0.0,
        -0.0,
        -0.0,
        -0.0,
        -0.0,
        -0.0,
        -0.0,
        -0.0,
        0.0,
        0.0,
        0.0,
        0.0,
        0.0,
        0.0,
        0.0,
        -0.0,
        -0.0,
        -0.0,
        -0.0,
        -0.0,
        -0.0,
        -0.0,
        -0.0,
        -0.0,
        -0.0,
        -0.0,
        -0.0,
        -0.0,
        -0.0,
        -0.0,
        -0.0,
        -0.0,
        0.0,
        0.0,
        0.0,
        0.0,
        0.0,
        0.0,
        0.0,
        -0.0,
        -0.0,
        -0.0,
        -0.0,
        -0.0,
        -0.0,
        -0.0,
        -0.0,
        -0.0,
        -0.0,
        -0.0,
        -0.0,
        -0.0,
        -0.0,
        -0.0,
        -0.0,
        -0.0,
        0.0,
        0.0,
        0.0,
        0.0,
        0.0,
        0.0,
        0.0,
        -0.0,
        -0.0,
        -0.0,
        -0.0,
        -0.0,
        -0.0,
        -0.0,
        -0.0,
        -0.0,
        -0.0,
        -0.0,
        -0.0,
        -0.0,
        -0.0,
        -0.0,
        -0.0,
        -0.0,
        0.0,
        0.0,
        0.0,
        0.0,
        0.0,
        0.0,
        0.0,
        -0.0,
        -0.0,
        -0.0,
        -0.0,
        -0.0,
        -0.0,
        -0.0,
        -0.0,
        -0.0,
        -0.0,
        -0.0,
        -0.0,
        -0.0,
        -0.0,
        -0.0,
        -0.0,
        -0.0,
        0.0,
        0.0,
        0.0,
        0.0,
        0.0,
        0.0,
        0.0,
        -0.0,
        -0.0,
        -0.0,
        -0.0,
        -0.0,
        -0.0,
        -0.0,
        -0.0,
        -0.0,
        -0.0,
        -0.0,
        -0.0,
        -0.0,
        -0.0,
        -0.0,
        -0.0,
        -0.0,
        0.0,
        0.0,
        0.0,
        0.0,
        0.0,
        0.0,
        0.0,
        -0.0,
        -0.0,
        -0.0,
        -0.0,
        -0.0,
        -0.0,
        -0.0,
        -0.0,
        -0.0,
        -0.0,
        -0.0,
        -0.0,
        -0.0,
        -0.0,
        -0.0,
        -0.0,
        -0.0,
        0.0,
        0.0,
        0.0,
        0.0,
        0.0,
        0.0,
        0.0,
        -0.0,
        -0.0,
        -0.0,
        -0.0,
        -0.0,
        -0.0,
        -0.0,
        -0.0,
        -0.0,
        -0.0,
        -0.0,
        -0.0,
        -0.0,
        -0.0,
        -0.0,
        -0.0,
        -0.0,
        0.0,
        0.0,
        0.0,
        0.0,
        0.0,
        0.0,
        0.0,
        -0.0,
        -0.0,
        -0.0,
        -0.0,
        -0.0,
        -0.0,
        -0.0,
        -0.0,
        -0.0,
        -0.0,
        -0.0,
        -0.0,
        -0.0,
        -0.0,
        -0.0,
        -0.0,
        -0.0,
        0.0,
        0.0,
        0.0,
        0.0,
        0.0,
        0.0,
        0.0,
        -0.0,
        -0.0,
        -0.0,
        -0.0,
        -0.0,
        -0.0,
        -0.0,
        -0.0,
        -0.0,
        -0.0,
        -0.0,
        -0.0,
        -0.0,
        -0.0,
        -0.0,
        -0.0,
        -0.0,
        0.0,
        0.0,
        0.0,
        0.0,
        0.0,
        0.0,
        0.0,
        -0.0,
        -0.0,
        -0.0,
        -0.0,
        -0.0,
        -0.0,
        -0.0,
        -0.0,
        -0.0,
        -0.0,
        -0.0,
        -0.0,
        -0.0,
        -0.0,
        -0.0,
        -0.0,
        -0.0,
        0.0,
        0.0,
        0.0,
        0.0,
        0.0,
        0.0,
        0.0,
        -0.0,
        -0.0,
        -0.0,
        -0.0,
        -0.0,
        -0.0,
        -0.0,
        -0.0,
        -0.0,
        -0.0,
        -0.0,
        -0.0,
        -0.0,
        -0.0,
        -0.0,
        -0.0,
        -0.0,
        0.0,
        0.0,
        0.0,
        0.0,
        0.0,
        0.0,
        0.0,
        -0.0,
        -0.0,
        -0.0,
        -0.0,
        -0.0,
        -0.0,
        -0.0,
        -0.0,
        -0.0,
        -0.0,
        -0.0,
        -0.0,
        -0.0,
        -0.0,
        -0.0,
        -0.0,
        -0.0,
        0.0,
        0.0,
        0.0,
        0.0,
        0.0,
        0.0,
        0.0,
        -0.0,
        -0.0,
        -0.0,
        -0.0,
        -0.0,
        -0.0,
        -0.0,
        -0.0,
        -0.0,
        -0.0,
        -0.0,
        -0.0,
        -0.0,
        -0.0,
        -0.0,
        -0.0,
        -0.0,
        0.0,
        0.0,
        0.0,
        0.0,
        0.0,
        0.0,
        0.0,
        -0.0,
        -0.0,
        -0.0,
        -0.0,
        -0.0,
        -0.0,
        -0.0,
        -0.0,
        -0.0,
        -0.0,
        -0.0,
        -0.0,
        -0.0,
        -0.0,
        -0.0,
        -0.0,
        -0.0,
        0.0,
        0.0,
        0.0,
        0.0,
        0.0,
        0.0,
        0.0,
        -0.0,
        -0.0,
        -0.0,
        -0.0,
        -0.0,
        -0.0,
        -0.0,
        -0.0,
        -0.0,
        -0.0,
        -0.0,
        -0.0,
        -0.0,
        -0.0,
        -0.0,
        -0.0,
        -0.0,
        0.0,
        0.0,
        0.0,
        0.0,
        0.0,
        0.0,
        0.0,
        -0.0,
        -0.0,
        -0.0,
        -0.0,
        -0.0,
        -0.0,
        -0.0,
        -0.0,
        -0.0,
        -0.0,
        -0.0,
        -0.0,
        -0.0,
        -0.0,
        -0.0,
        -0.0,
        -0.0,
        0.0,
        0.0,
        0.0,
        0.0,
        0.0,
        0.0,
        0.0,
        -0.0,
        -0.0,
        -0.0,
        -0.0,
        -0.0,
        -0.0,
        -0.0,
        -0.0,
        -0.0,
        -0.0,
        -0.0,
        -0.0,
        -0.0,
        -0.0,
        -0.0,
        -0.0,
        -0.0,
        0.0,
        0.0,
        0.0,
        0.0,
        0.0,
        0.0,
        0.0,
        -0.0,
        -0.0,
        -0.0,
        -0.0,
        -0.0,
        -0.0,
        -0.0,
        -0.0,
        -0.0,
        -0.0,
        -0.0,
        -0.0,
        -0.0,
        -0.0,
        -0.0,
        -0.0,
        -0.0,
        0.0,
        0.0,
        0.0,
        0.0,
        0.0,
        0.0,
        0.0,
        -0.0,
        -0.0,
        -0.0,
        -0.0,
        -0.0,
        -0.0,
        -0.0,
        -0.0,
        -0.0,
        -0.0,
        -0.0,
        -0.0,
        -0.0,
        -0.0,
        -0.0,
        -0.0,
        -0.0,
        0.0,
        0.0,
        0.0,
        0.0,
        0.0,
        0.0,
        0.0
      ]
    },
    "resid_lambdas": {
      "shape": [
        2
      ],
      "values": [
        -0.043400838971138,
        -0.03695198521018028
      ]
    },
    "smear_gate.weight": {
      "shape": [
        1,
        24
      ],
      "values": [
        0.0022041129413992167,
        0.002201152965426445,
        0.002198193222284317,
        0.002195233479142189,
        0.002192273736000061,
        0.002189313992857933,
        0.002186354249715805,
        0.002183394506573677,
        0.002180434763431549,
        0.0021774747874587774,
        0.0021745148114860058,
        0.002171555068343878,
        0.00216859532520175,
        0.002165635582059622,
        0.002162675838917494,
        0.002159715862944722,
        0.002156756119802594,
        0.002153796376660466,
        0.002150836633518338,
        0.00214787689037621,
        0.0021449169144034386,
        0.0021419571712613106,
        0.0021389974281191826,
        0.0021360376849770546
      ]
    },
    "smear_lambda": {
      "shape": [
        1
      ],
      "values": [
        -0.01784992590546608
      ]
    },
    "transformer.h.0.attn.c_proj.weight": {
      "shape": [
        24,
        24
      ],
      "values": [
        0.00046662474051117897,
        0.00038641344872303307,
        0.0003062021278310567,
        0.0002259907778352499,
        0.00014577944239135832,
        6.556811422342435e-05,
        0.0004666245949920267,
        0.0003864132449962199,
        0.00030620189500041306,
        0.00022599055955652148,
        0.00014577920956071466,
        6.556787411682308e-05,
        -1.4642447240476031e-05,
        -9.485374903306365e-05,
        -0.00017506505537312478,
        -0.0002552763617131859,
        -0.0003354876535013318,
        -0.0004156989452894777,
        -1.464274464524351e-05,
        -9.485405462328345e-05,
        -0.00017506536096334457,
        -0.0002552767109591514,
        -0.0003354880027472973,
        -0.0004156992945354432,
        0.0006163470097817481,
        0.0005103988805785775,
        0.00040445083868689835,
        0.00029850273858755827,
        0.00019255460938438773,
        8.660650200909004e-05,
        0.0006163467187434435,
        0.0005103986477479339,
        0.0004044505476485938,
        0.00029850241844542325,
        0.00019255427469033748,
        8.660616731503978e-05,
        -1.934055399033241e-05,
        -0.00012528862862382084,
        -0.00023123669961933047,
        -0.00033718475606292486,
        -0.0004431328270584345,
        -0.0005490808980539441,
        -1.9340961443958804e-05,
        -0.00012528905062936246,
        -0.00023123713617678732,
        -0.00033718522172421217,
        -0.0004431332927197218,
        -0.0005490814219228923,
        0.0007660692790523171,
        0.0006343843997456133,
        0.0005026995204389095,
        0.0003710146411322057,
        0.00023932976182550192,
        0.00010764488251879811,
        0.0007660689298063517,
        0.0006343840504996479,
        0.0005026991129852831,
        0.0003710142627824098,
        0.00023932935437187552,
        0.00010764445323729888,
        -2.403866164968349e-05,
        -0.0001557234936626628,
        -0.0002874083293136209,
        -0.00041909312130883336,
        -0.0005507780006155372,
        -0.0006824628217145801,
        -2.4039176423684694e-05,
        -0.00015572403208352625,
        -0.0002874088822863996,
        -0.00041909373248927295,
        -0.0005507785826921463,
        -0.0006824634619988501,
        0.0009157909080386162,
        0.0007583693950437009,
        0.0006009478238411248,
        0.00044352628174237907,
        0.0002861047105398029,
        0.00012868318299297243,
        0.0009157904423773289,
        0.0007583689875900745,
        0.0006009473581798375,
        0.0004435258451849222,
        0.0002861042448785156,
        0.0001286826591240242,
        -2.8736749300151132e-05,
        -0.0001861582277342677,
        -0.00034357974072918296,
        -0.0005010012537240982,
        -0.0006584227085113525,
        -0.0008158442215062678,
        -2.8737376851495355e-05,
        -0.00018615889712236822,
        -0.00034358041011728346,
        -0.0005010018940083683,
        -0.0006584234070032835,
        -0.0008158449782058597,
        0.0010655141668394208,
        0.0008823557291179895,
        0.0006991971749812365,
        0.0005160387372598052,
        0.0003328801831230521,
        0.00014972170174587518,
        0.0010655135847628117,
        0.0008823552052490413,
        0.0006991965929046273,
        0.0005160381551831961,
        0.000332879601046443,
        0.0001497210905654356,
        -3.343488788232207e-05,
        -0.0002165933110518381,
        -0.0003997517342213541,
        -0.0005829101428389549,
        -0.0007660685805603862,
        -0.0009492270182818174,
        -3.343562639201991e-05,
        -0.0002165940823033452,
        -0.00039975252002477646,
        -0.0005829109577462077,
        -0.000766069395467639,
        -0.000949227949604392,
        0.0012152347480878234,
        0.0010063399095088243,
        0.0007974448963068426,
        0.0005885498831048608,
        0.000379654869902879,
        0.00017075985670089722,
        0.0012152341660112143,
        0.0010063393274322152,
        0.0007974442560225725,
        0.0005885492428205907,
        0.00037965417141094804,
        0.00017075915820896626,
        -3.813294824794866e-05,
        -0.00024702787050046027,
        -0.0004559227963909507,
        -0.0006648177513852715,
        -0.0008737125899642706,
        -0.0010826075449585915,
        -3.813379225903191e-05,
        -0.00024702874361537397,
        -0.00045592369860969484,
        -0.0006648186827078462,
        -0.0008737135794945061,
        -0.001082608592696488,
        0.0013649570755660534,
        0.0011303253704681993,
        0.0008956936071626842,
        0.0006610617856495082,
        0.00042642999324016273,
        0.00019179825903847814,
        0.0013649563770741224,
        0.0011303246719762683,
        0.0008956929086707532,
        0.0006610610871575773,
        0.00042642923654057086,
        0.00019179745868314058,
        -4.283105590729974e-05,
        -0.00027746273553930223,
        -0.0005120944115333259,
        -0.00074672611663118,
        -0.0009813577635213733,
        -0.0012159894686192274,
        -4.283201269572601e-05,
        -0.0002774637541733682,
        -0.0005120954592712224,
        -0.0007467271643690765,
        -0.0009813588112592697,
        -0.0012159907491877675,
        0.0015146792866289616,
        0.0012543108314275742,
        0.000993942259810865,
        0.0007335737464018166,
        0.0004732051456812769,
        0.0002128366322722286,
        0.0015146785881370306,
        0.0012543101329356432,
        0.0009939414449036121,
        0.0007335729314945638,
        0.00047320430167019367,
        0.00021283573005348444,
        -4.7529159928672016e-05,
        -0.0003078976005781442,
        -0.0005682660266757011,
        -0.0008286345400847495,
        -0.001089002937078476,
        -0.0013493715086951852,
        -4.75302294944413e-05,
        -0.000307898735627532,
        -0.0005682671908289194,
        -0.0008286357042379677,
        -0.0010890041012316942,
        -0.0013493726728484035,
        0.0016644007991999388,
        0.00137829571031034,
        0.0010921905050054193,
        0.0008060852997004986,
        0.000519980036187917,
        0.00023387490364257246,
        0.001664399984292686,
        0.0013782948954030871,
        0.0010921895736828446,
        0.0008060844265855849,
        0.0005199791630730033,
        0.00023387392866425216,
        -5.222724212217145e-05,
        -0.00033833232009783387,
        -0.0006244374089874327,
        -0.0009105423814617097,
        -0.0011966475285589695,
        -0.0014827526174485683,
        -5.2228420827304944e-05,
        -0.00033833354245871305,
        -0.0006244386313483119,
        -0.0009105437784455717,
        -0.0011966488091275096,
        -0.0014827540144324303,
        0.0018141239415854216,
        0.0015022818697616458,
        0.0011904396815225482,
        0.0008785976096987724,
        0.0005667554796673357,
        0.0002549133787397295,
        0.001814123010262847,
        0.0015022808220237494,
        0.0011904387501999736,
        0.0008785966783761978,
        0.0005667544901371002,
        0.0002549123310018331,
        -5.692537524737418e-05,
        -0.0003687673597596586,
        -0.0006806093733757734,
        -0.0009924513287842274,
        -0.0013042932841926813,
        -0.0016161352396011353,
        -5.692666309187189e-05,
        -0.0003687686985358596,
        -0.0006806107121519744,
        -0.0009924527257680893,
        -0.001304294797591865,
        -0.0016161368694156408,
        0.0019638449884951115,
        0.0016262662829831243,
        0.001288687577471137,
        0.0009511089883744717,
        0.0006135302246548235,
        0.0002759516064543277,
        0.001963844057172537,
        0.0016262653516605496,
        0.0012886866461485624,
        0.0009511079406365752,
        0.0006135291769169271,
        0.0002759504714049399,
        -6.162343925097957e-05,
        -0.0003992019919678569,
        -0.0007367805810645223,
        -0.0010743591701611876,
        -0.0014119376428425312,
        -0.0017495162319391966,
        -6.162484351079911e-05,
        -0.0003992034471593797,
        -0.0007367820362560451,
        -0.0010743606835603714,
        -0.0014119392726570368,
        -0.0017495178617537022,
        0.002113566966727376,
        0.0017502516275271773,
        0.001386936055496335,
        0.0010236208327114582,
        0.0006603053770959377,
        0.00029698997968807817,
        0.0021135658025741577,
        0.0017502505797892809,
        0.0013869351241737604,
        0.0010236195521429181,
        0.0006603041547350585,
        0.0002969887282233685,
        -6.632153963437304e-05,
        -0.00042963679879903793,
        -0.0007929520797915757,
        -0.0011562673607841134,
        -0.001519582699984312,
        -0.001882897806353867,
        -6.632305303355679e-05,
        -0.00042963834130205214,
        -0.0007929536513984203,
        -0.001156268990598619,
        -0.0015195843297988176,
        -0.0018828996689990163,
        0.002328852890059352,
        0.0019285307498648763,
        0.0015282082604244351,
        0.0011278858873993158,
        0.0007275635725818574,
        0.0003272412868682295,
        0.0023288517259061337,
        0.0019285294692963362,
        0.0015282070962712169,
        0.0011278847232460976,
        0.0007275622920133173,
        0.0003272398898843676,
        -7.307680789381266e-05,
        -0.00047339897719211876,
        -0.0008737211464904249,
        -0.0012740433448925614,
        -0.001674365485087037,
        -0.0020746877416968346,
        -7.307845953619108e-05,
        -0.00047340072342194617,
        -0.0008737228927202523,
        -0.0012740452075377107,
        -0.0016743673477321863,
        -0.0020746898371726274,
        0.0024865607265383005,
        0.002059129299595952,
        0.0016316972905769944,
        0.0012042655143886805,
        0.0007768336217850447,
        0.00034940181649290025,
        0.0024865595623850822,
        0.00205912790261209,
        0.0016316960100084543,
        0.0012042641174048185,
        0.0007768321665935218,
        0.00034940033219754696,
        -7.802547770552337e-05,
        -0.000505457166582346,
        -0.0009328888263553381,
        -0.0013603204861283302,
        -0.0017877521459013224,
        -0.0022151838056743145,
        -7.802726031513885e-05,
        -0.0005054590292274952,
        -0.0009328906890004873,
        -0.0013603223487734795,
        -0.0017877540085464716,
        -0.0022151859011501074,
        0.0026442701928317547,
        0.0021897286642342806,
        0.0017351871356368065,
        0.0012806456070393324,
        0.0008261040202341974,
        0.0003715624916367233,
        0.0026442687958478928,
        0.0021897272672504187,
        0.0017351856222376227,
        0.0012806442100554705,
        0.0008261025068350136,
        0.0003715609200298786,
        -8.297419844893739e-05,
        -0.0005375155596993864,
        -0.0009920569136738777,
        -0.00144659832585603,
        -0.0019011396216228604,
        -0.0023556810338050127,
        -8.297609019791707e-05,
        -0.0005375175387598574,
        -0.0009920588927343488,
        -0.001446600304916501,
        -0.0019011418335139751,
        -0.0023556833621114492,
        0.002801978960633278,
        0.002320328028872609,
        0.001838676747865975,
        0.0013570255832746625,
        0.0008753743604756892,
        0.0003937231667805463,
        0.0028019777964800596,
        0.002320326631888747,
        0.0018386752344667912,
        0.0013570240698754787,
        0.0008753727306611836,
        0.0003937215078622103,
        -8.792289736447856e-05,
        -0.0005695738946087658,
        -0.0010512250009924173,
        -0.001532875932753086,
        -0.002014526864513755,
        -0.0024961780291050673,
        -8.792490552878007e-05,
        -0.0005695759900845587,
        -0.0010512270964682102,
        -0.0015328781446442008,
        -0.0020145291928201914,
        -0.002496180357411504,
        0.00295968702994287,
        0.0024509262293577194,
        0.0019421656616032124,
        0.0014334050938487053,
        0.0009246442932635546,
        0.0004158836673013866,
        0.0029596856329590082,
        0.0024509248323738575,
        0.0019421641482040286,
        0.0014334033476188779,
        0.000924642663449049,
        0.00041588189196772873,
        -9.287157445214689e-05,
        -0.0006016320548951626,
        -0.0011103925062343478,
        -0.0016191530739888549,
        -0.00212791352532804,
        -0.0026366738602519035,
        -9.287369903177023e-05,
        -0.0006016342667862773,
        -0.0011103948345407844,
        -0.0016191552858799696,
        -0.0021279158536344767,
        -0.0026366766542196274,
        0.003117396030575037,
        0.0025815258268266916,
        0.0020456553902477026,
        0.0015097850700840354,
        0.0009739146335050464,
        0.0004380443424452096,
        0.0031173944007605314,
        0.002581524197012186,
        0.002045653760433197,
        0.001509783323854208,
        0.000973912887275219,
        0.00043804250890389085,
        -9.782028064364567e-05,
        -0.000633690448012203,
        -0.0011695605935528874,
        -0.001705430680885911,
        -0.0022413008846342564,
        -0.0027771710883826017,
        -9.782251436263323e-05,
        -0.0006336927763186395,
        -0.001169562921859324,
        -0.0017054331256076694,
        -0.002241303212940693,
        -0.002777173649519682,
        0.0032751052640378475,
        0.002712125424295664,
        0.002149145118892193,
        0.0015861652791500092,
        0.00102318509016186,
        0.0004602050466928631,
        0.0032751034013926983,
        0.0027121237944811583,
        0.0021491434890776873,
        0.00158616341650486,
        0.0010231832275167108,
        0.0004602030967362225,
        -0.00010276898683514446,
        -0.0006657488411292434,
        -0.0012287285644561052,
        -0.0017917085206136107,
        -0.0023546882439404726,
        -0.0029176683165133,
        -0.00010277133696945384,
        -0.0006657512276433408,
        -0.0012287312420085073,
        -0.001791711081750691,
        -0.002354690805077553,
        -0.002917671110481024,
        0.0034328135661780834,
        0.002842724323272705,
        0.0022526346147060394,
        0.0016625450225546956,
        0.00107245531398803,
        0.0004823656054213643,
        0.0034328121691942215,
        0.0028427226934581995,
        0.00225263275206089,
        0.0016625430434942245,
        0.001072453334927559,
        0.0004823635972570628,
        -0.00010771767847472802,
        -0.0006978071178309619,
        -0.0012878964189440012,
        -0.0018779857782647014,
        -0.002468075370416045,
        -0.0030581646133214235,
        -0.00010772015230031684,
        -0.0006978096207603812,
        -0.0012878989800810814,
        -0.001877988688647747,
        -0.0024680779315531254,
        -0.0030581678729504347,
        0.0035905211698263884,
        0.0029733222909271717,
        0.0023561231791973114,
        0.0017389243002980947,
        0.0011217250721529126,
        0.0005045260768383741,
        0.0035905195400118828,
        0.0029733204282820225,
        0.002356121316552162,
        0.0017389223212376237,
        0.0011217229766771197,
        0.0005045239813625813,
        -0.00011266634828643873,
        -0.0007298651034943759,
        -0.0013470639241859317,
        -0.0019642626866698265,
        -0.002581461565569043,
        -0.00319866044446826,
        -0.00011266892397543415,
        -0.0007298678974620998,
        -0.0013470667181536555,
        -0.0019642654806375504,
        -0.0025814645923674107,
        -0.003198663704097271,
        0.0037482301704585552,
        0.0031039216555655003,
        0.0024596129078418016,
        0.0018153043929487467,
        0.0011709954123944044,
        0.0005266867810860276,
        0.0037482285406440496,
        0.003103919792920351,
        0.0024596108123660088,
        0.001815302181057632,
        0.0011709934333339334,
        0.000526684510987252,
        -0.00011761505447793752,
        -0.0007619234966114163,
        -0.0014062320115044713,
        -0.0020505404099822044,
        -0.0026948489248752594,
        -0.003339157672598958,
        -0.00011761775385821238,
        -0.0007619263487868011,
        -0.001406234921887517,
        -0.0020505436696112156,
        -0.002694851951673627,
        -0.003339160932227969,
        0.0039059382397681475,
        0.0032345205545425415,
        0.002563101937994361,
        0.0018916839035227895,
        0.0012202655198052526,
        0.0005488473107106984,
        0.0039059363771229982,
        0.003234518226236105,
        0.0025631000753492117,
        0.001891681575216353,
        0.0012202633079141378,
        0.0005488449824042618,
        -0.00012256373884156346,
        -0.000793981715105474,
        -0.0014653997495770454,
        -0.002136817667633295,
        -0.0028082355856895447,
        -0.0034796539694070816,
        -0.00012256654736120254,
        -0.0007939846836961806,
        -0.0014654026599600911,
        -0.002136820927262306,
        -0.002808238845318556,
        -0.0034796572290360928,
        0.004063648171722889,
        0.0033651203848421574,
        0.002666592365130782,
        0.001968064345419407,
        0.001269536092877388,
        0.0005710081313736737,
        0.00406364630907774,
        0.0033651182893663645,
        0.0026665900368243456,
        0.0019680620171129704,
        0.0012695338809862733,
        0.0005710056866519153,
        -0.0001275124668609351,
        -0.0008260402246378362,
        -0.0015245680697262287,
        -0.0022230958566069603,
        -0.0029216234106570482,
        -0.0036201514303684235,
        -0.000127515391795896,
        -0.0008260433096438646,
        -0.001524571212939918,
        -0.0022230991162359715,
        -0.002921626903116703,
        -0.0036201549228280783
      ]
    },
    "transformer.h.0.attn.c_q.weight": {
      "shape": [
        24,
        24
      ],
      "values": [
        5.285785142916666e-09,
        5.278800063734934e-09,
        5.271814540463993e-09,
        5.264829461282261e-09,
        5.257844382100529e-09,
        5.250858414740378e-09,
        5.243873779647856e-09,
        5.236888256376915e-09,
        5.229903621284393e-09,
        5.2229180980134515e-09,
        5.21593301883172e-09,
        5.208947939649988e-09,
        5.201961972289837e-09,
        5.194976893108105e-09,
        5.1879922580155835e-09,
        5.181006290655432e-09,
        5.1740212114737005e-09,
        5.167035688202759e-09,
        5.160050609021027e-09,
        5.153065529839296e-09,
        5.146080006568354e-09,
        5.139094927386623e-09,
        5.132109404115681e-09,
        5.1251243249339495e-09,
        -1.240146985104218e-09,
        -1.2385183989493953e-09,
        -1.2368898127945727e-09,
        -1.23526122663975e-09,
        -1.2336326404849274e-09,
        -1.2320038322854998e-09,
        -1.2303753571529796e-09,
        -1.228746770998157e-09,
        -1.2271182958656368e-09,
        -1.2254895986885117e-09,
        -1.223861012533689e-09,
        -1.2222324263788664e-09,
        -1.2206036181794389e-09,
        -1.2189751430469187e-09,
        -1.2173466679143985e-09,
        -1.2157179707372734e-09,
        -1.2140893845824507e-09,
        -1.2124606874053256e-09,
        -1.2108322122728055e-09,
        -1.2092035150956804e-09,
        -1.2075749289408577e-09,
        -1.2059462317637326e-09,
        -1.2043177566312124e-09,
        -1.2026890594540873e-09,
        -1.1826007950688222e-09,
        -1.1810475930573716e-09,
        -1.1794942800236186e-09,
        -1.1779409669898655e-09,
        -1.176387764978415e-09,
        -1.1748343409223594e-09,
        -1.1732811389109088e-09,
        -1.1717278258771557e-09,
        -1.1701747348880076e-09,
        -1.168621310831952e-09,
        -1.1670681088205015e-09,
        -1.1655147957867484e-09,
        -1.163961371730693e-09,
        -1.1624082807415448e-09,
        -1.1608549677077917e-09,
        -1.1593016546740387e-09,
        -1.1577483416402856e-09,
        -1.1561950286065326e-09,
        -1.154641826595082e-09,
        -1.153088513561329e-09,
        -1.1515352005275759e-09,
        -1.1499818874938228e-09,
        -1.1484286854823722e-09,
        -1.1468753724486191e-09,
        -2.560164968912204e-09,
        -2.5567459260855685e-09,
        -2.553326661214328e-09,
        -2.5499073963430874e-09,
        -2.5464885755610567e-09,
        -2.543069088645211e-09,
        -2.5396502678631805e-09,
        -2.53623100299194e-09,
        -2.532812404254514e-09,
        -2.5293931393832736e-09,
        -2.525974096556638e-09,
        -2.5225550537300023e-09,
        -2.519135566814157e-09,
        -2.515716746032126e-09,
        -2.5122977032054905e-09,
        -2.50887843833425e-09,
        -2.5054596175522192e-09,
        -2.502039908591769e-09,
        -2.498621309854343e-09,
        -2.4952020449831025e-09,
        -2.491782780111862e-09,
        -2.4883637372852263e-09,
        -2.4849446944585907e-09,
        -2.481525651631955e-09,
        -1.0966546559743051e-09,
        -1.0952135864883417e-09,
        -1.0937725170023782e-09,
        -1.0923313364941123e-09,
        -1.0908902670081488e-09,
        -1.0894489754775805e-09,
        -1.0880080170139195e-09,
        -1.0865668365056536e-09,
        -1.0851258780419926e-09,
        -1.0836845865114242e-09,
        -1.0822435170254607e-09,
        -1.0808024475394973e-09,
        -1.079361156008929e-09,
        -1.0779200865229654e-09,
        -1.0764791280593045e-09,
        -1.075037836528736e-09,
        -1.0735967670427726e-09,
        -1.0721555865345067e-09,
        -1.0707145170485433e-09,
        -1.0692733365402773e-09,
        -1.0678321560320114e-09,
        -1.066391086546048e-09,
        -1.0649500170600845e-09,
        -1.0635088365518186e-09,
        -8.46940184651146e-10,
        -8.458280187362277e-10,
        -8.44715741799007e-10,
        -8.43603409350635e-10,
        -8.424911879245656e-10,
        -8.413787999650424e-10,
        -8.402666340501241e-10,
        -8.391543571129034e-10,
        -8.380421911979852e-10,
        -8.369298587496132e-10,
        -8.358175818123925e-10,
        -8.34705360386323e-10,
        -8.335929724267999e-10,
        -8.324808065118816e-10,
        -8.313685850858121e-10,
        -8.302562526374402e-10,
        -8.291439757002195e-10,
        -8.280316432518475e-10,
        -8.26919421825778e-10,
        -8.258071448885573e-10,
        -8.246948679513366e-10,
        -8.235825910141159e-10,
        -8.224703695880464e-10,
        -8.213580926508257e-10,
        1.0214128209895534e-08,
        1.0200619904310315e-08,
        1.0187111598725096e-08,
        1.0173602404961457e-08,
        1.0160094099376238e-08,
        1.0146584905612599e-08,
        1.01330774882058e-08,
        1.011956829444216e-08,
        1.0106060877035361e-08,
        1.0092552571450142e-08,
        1.0079044265864923e-08,
        1.0065535072101284e-08,
        1.0052024990159225e-08,
        1.0038517572752426e-08,
        1.0025010155345626e-08,
        1.0011500961581987e-08,
        9.997992655996768e-09,
        9.984483462233129e-09,
        9.97097604482633e-09,
        9.95746685106269e-09,
        9.943957657299052e-09,
        9.930449351713833e-09,
        9.916941046128613e-09,
        9.903432740543394e-09,
        -4.157534760906856e-09,
        -4.152061805484664e-09,
        -4.146587961884052e-09,
        -4.14111456237265e-09,
        -4.135641162861248e-09,
        -4.130167319260636e-09,
        -4.124693919749234e-09,
        -4.119220520237832e-09,
        -4.11374756481564e-09,
        -4.108273721215028e-09,
        -4.102800321703626e-09,
        -4.097326922192224e-09,
        -4.091852634502402e-09,
        -4.08637967908021e-09,
        -4.080906723658018e-09,
        -4.075432880057406e-09,
        -4.069959480546004e-09,
        -4.064485636945392e-09,
        -4.05901223743399e-09,
        -4.053538837922588e-09,
        -4.048064994321976e-09,
        -4.042591594810574e-09,
        -4.037118195299172e-09,
        -4.03164479578777e-09,
        -3.448891838786494e-09,
        -3.4443512486603822e-09,
        -3.4398104364896653e-09,
        -3.4352694022743435e-09,
        -3.4307283680590217e-09,
        -3.4261873338437e-09,
        -3.421646743717588e-09,
        -3.417105931546871e-09,
        -3.412565341420759e-09,
        -3.4080243072054373e-09,
        -3.4034834950347204e-09,
        -3.3989426828640035e-09,
        -3.394401204559472e-09,
        -3.3898608364779648e-09,
        -3.385320246351853e-09,
        -3.380778990091926e-09,
        -3.376238177921209e-09,
        -3.3716969216612824e-09,
        -3.3671565535797754e-09,
        -3.3626155193644536e-09,
        -3.3580744851491318e-09,
        -3.353533672978415e-09,
        -3.348993082852303e-09,
        -3.344452048636981e-09,
        -6.860080503656718e-09,
        -6.850930489576967e-09,
        -6.841780031408007e-09,
        -6.832630017328256e-09,
        -6.8234800032485055e-09,
        -6.814328656901125e-09,
        -6.805179530999794e-09,
        -6.796028628741624e-09,
        -6.786879502840293e-09,
        -6.7777286005821225e-09,
        -6.768579030591582e-09,
        -6.759428572422621e-09,
        -6.750277226075241e-09,
        -6.74112810017391e-09,
        -6.731978086094159e-09,
        -6.722827627925199e-09,
        -6.713677613845448e-09,
        -6.704526267498068e-09,
        -6.695377141596737e-09,
        -6.686226239338566e-09,
        -6.677076225258816e-09,
        -6.667926211179065e-09,
        -6.658775753010104e-09,
        -6.649625738930354e-09,
        -2.099150631096336e-09,
        -2.0963859537204144e-09,
        -2.093621054299888e-09,
        -2.0908559328347565e-09,
        -2.088091255458835e-09,
        -2.0853261339937035e-09,
        -2.082561456617782e-09,
        -2.0797965571972554e-09,
        -2.077031879821334e-09,
        -2.0742667583562024e-09,
        -2.071502080980281e-09,
        -2.0687371815597544e-09,
        -2.065971838050018e-09,
        -2.0632071606740965e-09,
        -2.060442483298175e-09,
        -2.0576773618330435e-09,
        -2.054912684457122e-09,
        -2.0521475629919905e-09,
        -2.049382885616069e-09,
        -2.0466179861955425e-09,
        -2.043853086775016e-09,
        -2.0410881873544895e-09,
        -2.038323287933963e-09,
        -2.0355583885134365e-09,
        -9.505449760638385e-10,
        -9.492936436927835e-10,
        -9.480420892771235e-10,
        -9.46790645883766e-10,
        -9.455392024904086e-10,
        -9.442875370524462e-10,
        -9.430362046813912e-10,
        -9.417846502657312e-10,
        -9.405333178946762e-10,
        -9.392817634790163e-10,
        -9.380303200856588e-10,
        -9.367787656699988e-10,
        -9.35527211254339e-10,
        -9.342757678609814e-10,
        -9.33024324467624e-10,
        -9.31772770051964e-10,
        -9.305213266586065e-10,
        -9.292697722429466e-10,
        -9.280183288495891e-10,
        -9.267667744339292e-10,
        -9.255153310405717e-10,
        -9.24263832136063e-10,
        -9.230123332315543e-10,
        -9.217608898381968e-10,
        -1.3230983419987297e-08,
        -1.3213375282816742e-08,
        -1.3195767145646187e-08,
        -1.3178158120297212e-08,
        -1.3160550871305077e-08,
        -1.3142940957777682e-08,
        -1.3125335485142386e-08,
        -1.3107725571614992e-08,
        -1.3090119210801276e-08,
        -1.3072511073630722e-08,
        -1.3054902048281747e-08,
        -1.3037294799289612e-08,
        -1.3019683997583797e-08,
        -1.3002076748591662e-08,
        -1.2984469499599527e-08,
        -1.2966860474250552e-08,
        -1.2949252337079997e-08,
        -1.2931643311731023e-08,
        -1.2914036062738887e-08,
        -1.2896427037389913e-08,
        -1.2878818900219358e-08,
        -1.2861210763048803e-08,
        -1.2843602625878248e-08,
        -1.2825995376886112e-08,
        1.1182822723387886e-10,
        1.116858758254402e-10,
        1.1154351053921374e-10,
        1.1140113137519947e-10,
        1.112587522111852e-10,
        1.1111635916938312e-10,
        1.1097399388315665e-10,
        1.1083163553582409e-10,
        1.1068926331070372e-10,
        1.1054688414668945e-10,
        1.1040451886046299e-10,
        1.1026213275755481e-10,
        1.1011975359354054e-10,
        1.0997738830731407e-10,
        1.0983502302108761e-10,
        1.0969264385707334e-10,
        1.0955026469305906e-10,
        1.0940788552904479e-10,
        1.0926552718171223e-10,
        1.0912314801769796e-10,
        1.0898077579257759e-10,
        1.0883838275077551e-10,
        1.0869603134233685e-10,
        1.0855365217832258e-10,
        2.8617579417300476e-09,
        2.8580084965312835e-09,
        2.8542588292879145e-09,
        2.8505091620445455e-09,
        2.8467594948011765e-09,
        2.8430096055132026e-09,
        2.8392601603144385e-09,
        2.8355104930710695e-09,
        2.8317610478723054e-09,
        2.8280113806289364e-09,
        2.8242617133855674e-09,
        2.8205120461421984e-09,
        2.8167619348096196e-09,
        2.8130127116554604e-09,
        2.8092632664566963e-09,
        2.8055133771687224e-09,
        2.8017637099253534e-09,
        2.7980138206373795e-09,
        2.7942643754386154e-09,
        2.7905147081952464e-09,
        2.7867650409518774e-09,
        2.7830153737085084e-09,
        2.7792659285097443e-09,
        2.7755160392217704e-09,
        -2.3869242582463812e-08,
        -2.3837955609451456e-08,
        -2.38066686364391e-08,
        -2.3775379887069903e-08,
        -2.3744091137700707e-08,
        -2.371280061197467e-08,
        -2.3681513638962315e-08,
        -2.365022488959312e-08,
        -2.36189396929376e-08,
        -2.3587649167211566e-08,
        -2.355636219419921e-08,
        -2.3525073444830014e-08,
        -2.3493782919103978e-08,
        -2.346249594609162e-08,
        -2.3431210749436104e-08,
        -2.339992022371007e-08,
        -2.3368631474340873e-08,
        -2.3337340948614838e-08,
        -2.330605575195932e-08,
        -2.3274765226233285e-08,
        -2.324347647686409e-08,
        -2.3212187727494893e-08,
        -2.3180900754482536e-08,
        -2.314961200511334e-08,
        6.312040223832582e-09,
        6.303768618209915e-09,
        6.295497012587248e-09,
        6.2872254069645805e-09,
        6.278953801341913e-09,
        6.2706808634516165e-09,
        6.262409701918159e-09,
        6.254138096295492e-09,
        6.245866934762034e-09,
        6.237594885050157e-09,
        6.22932327942749e-09,
        6.221051229715613e-09,
        6.212778735914526e-09,
        6.2045075743810685e-09,
        6.196236412847611e-09,
        6.187963919046524e-09,
        6.179692313423857e-09,
        6.17141981962277e-09,
        6.1631486580893124e-09,
        6.154877052466645e-09,
        6.146605002754768e-09,
        6.138332953042891e-09,
        6.1300617915094335e-09,
        6.1217897417975564e-09,
        7.565533977071937e-09,
        7.555621905908083e-09,
        7.54570894656581e-09,
        7.535795987223537e-09,
        7.525883027881264e-09,
        7.515969180360571e-09,
        7.506057109196718e-09,
        7.496144149854445e-09,
        7.486232078690591e-09,
        7.476318231169898e-09,
        7.466406160006045e-09,
        7.456493200663772e-09,
        7.446578909053869e-09,
        7.436666837890016e-09,
        7.4267543226369526e-09,
        7.41684091920547e-09,
        7.4069279598631965e-09,
        7.3970145564317136e-09,
        7.38710248526786e-09,
        7.377189081836377e-09,
        7.367276122494104e-09,
        7.357362719062621e-09,
        7.347450647898768e-09,
        7.337537244467285e-09,
        -3.2530897975391326e-09,
        -3.2487446066653547e-09,
        -3.244399193746972e-09,
        -3.240053780828589e-09,
        -3.235708589954811e-09,
        -3.2313629549918232e-09,
        -3.2270179861626502e-09,
        -3.2226723511996624e-09,
        -3.2183276044150944e-09,
        -3.2139819694521066e-09,
        -3.2096367785783286e-09,
        -3.2052913656599458e-09,
        -3.200945730696958e-09,
        -3.196600761867785e-09,
        -3.192255570994007e-09,
        -3.1879099360310192e-09,
        -3.1835647451572413e-09,
        -3.1792191101942535e-09,
        -3.1748739193204756e-09,
        -3.1705285064020927e-09,
        -3.16618309348371e-09,
        -3.161837902609932e-09,
        -3.157492489691549e-09,
        -3.153147298817771e-09,
        1.4828949179701567e-09,
        1.4809445891827977e-09,
        1.4789942603954387e-09,
        1.4770438205857772e-09,
        1.4750934917984182e-09,
        1.4731429409664543e-09,
        1.4711927232013977e-09,
        1.4692422833917362e-09,
        1.4672920656266797e-09,
        1.4653416258170182e-09,
        1.4633912970296592e-09,
        1.4614408572199977e-09,
        1.4594903063880338e-09,
        1.4575400886229772e-09,
        1.4555897598356182e-09,
        1.4536393200259567e-09,
        1.4516889912385977e-09,
        1.4497384404066338e-09,
        1.4477881116192748e-09,
        1.4458377828319158e-09,
        1.4438873430222543e-09,
        1.4419369032125928e-09,
        1.4399865744252338e-09,
        1.4380362456378748e-09,
        2.2229005303131544e-09,
        2.219978867401551e-09,
        2.2170567604007374e-09,
        2.214134875444529e-09,
        2.2112129904883204e-09,
        2.208290661442902e-09,
        2.2053687764866936e-09,
        2.202446891530485e-09,
        2.1995252286188816e-09,
        2.1966028995734632e-09,
        2.1936810146172547e-09,
        2.1907591296610462e-09,
        2.187836800615628e-09,
        2.1849151377040243e-09,
        2.181993252747816e-09,
        2.1790711457470024e-09,
        2.176149038746189e-09,
        2.1732269317453756e-09,
        2.170305046789167e-09,
        2.1673831618329586e-09,
        2.1644610548321452e-09,
        2.161538947831332e-09,
        2.1586170628751233e-09,
        2.155695177918915e-09,
        -8.027467579552194e-09,
        -8.016963093382401e-09,
        -8.006458607212608e-09,
        -7.995953232864395e-09,
        -7.985447858516181e-09,
        -7.974941595989549e-09,
        -7.964437109819755e-09,
        -7.953932623649962e-09,
        -7.943428137480169e-09,
        -7.932922763131955e-09,
        -7.922418276962162e-09,
        -7.911912902613949e-09,
        -7.901406640087316e-09,
        -7.890902153917523e-09,
        -7.88039766774773e-09,
        -7.869892293399516e-09,
        -7.859387807229723e-09,
        -7.84888154470309e-09,
        -7.838377058533297e-09,
        -7.827871684185084e-09,
        -7.81736719801529e-09,
        -7.806860935488658e-09,
        -7.796356449318864e-09,
        -7.78585196314907e-09,
        2.9277293922547187e-09,
        2.9238820253851827e-09,
        2.9200344364710418e-09,
        2.916186625512296e-09,
        2.912339036598155e-09,
        2.908491003594804e-09,
        2.9046434146806632e-09,
        2.9007958257665223e-09,
        2.8969484588969863e-09,
        2.8931006479382404e-09,
        2.8892530590240995e-09,
        2.8854054701099585e-09,
        2.881557215062003e-09,
        2.8777098481924668e-09,
        2.873862259278326e-09,
        2.87001444831958e-09,
        2.866166859405439e-09,
        2.8623188264020882e-09,
        2.8584714595325522e-09,
        2.8546236485738063e-09,
        2.8507760596596654e-09,
        2.8469282487009195e-09,
        2.8430806597867786e-09,
        2.8392330708726377e-09,
        3.1017437507330214e-09,
        3.0976676779204126e-09,
        3.093591605107804e-09,
        3.08951531025059e-09,
        3.0854390153933764e-09,
        3.0813624984915577e-09,
        3.077286425678949e-09,
        3.0732101308217352e-09,
        3.0691342800537313e-09,
        3.0650577631519127e-09,
        3.060981690339304e-09,
        3.05690539548209e-09,
        3.0528288785802715e-09,
        3.0487528057676627e-09,
        3.044676732955054e-09,
        3.0406002160532353e-09,
        3.0365241432406265e-09,
        3.032447626338808e-09,
        3.028371553526199e-09,
        3.0242952586689853e-09,
        3.0202189638117716e-09,
        3.016142668954558e-09,
        3.012066596141949e-09,
        3.0079903012847353e-09
      ]
    },
    "transformer.h.1.attn.ve_gate.weight": {
      "shape": [
        2,
        12
      ],
      "values": [
        0.002476159716024995,
        0.002359116217121482,
        0.0022420731838792562,
        0.002125029917806387,
        0.0020079866517335176,
        0.001890943618491292,
        0.0017739003524184227,
        0.0016568570863455534,
        0.0015398137038573623,
        0.0014227705541998148,
        0.0013057274045422673,
        0.001188684138469398,
        0.002851465716958046,
        0.002716304734349251,
        0.0025811437517404556,
        0.002445982536301017,
        0.0023108217865228653,
        0.0021756605710834265,
        0.002040499821305275,
        0.0019053386058658361,
        0.001770177623257041,
        0.001635016524232924,
        0.0014998556580394506,
        0.0013646946754306555
      ]
    },
    "transformer.h.1.mlp.c_fc.weight": {
      "shape": [
        96,
        24
      ],
      "values": [
        -0.005294127855449915,
        -0.0050700088031589985,
        -0.004845889750868082,
        -0.004621770232915878,
        -0.0043976507149636745,
        -0.004173531662672758,
        -0.003949412144720554,
        -0.0037252926267683506,
        -0.003501173574477434,
        -0.003277054289355874,
        -0.0030529352370649576,
        -0.00282881548628211,
        -0.0026046964339911938,
        -0.00238057691603899,
        -0.0021564578637480736,
        -0.0019323384622111917,
        -0.0017082191770896316,
        -0.0014840996591374278,
        -0.0012599804904311895,
        -0.0010358609724789858,
        -0.0008117418619804084,
        -0.0005876225186511874,
        -0.00036350329173728824,
        -0.00013938381744083017,
        -0.005200399085879326,
        -0.004980247002094984,
        -0.0047600953839719296,
        -0.004539943765848875,
        -0.004319791682064533,
        -0.004099640063941479,
        -0.0038794884458184242,
        -0.0036593363620340824,
        -0.003439184743911028,
        -0.003219032660126686,
        -0.0029988812748342752,
        -0.002778729423880577,
        -0.0025585778057575226,
        -0.0023384259548038244,
        -0.0021182741038501263,
        -0.001898122252896428,
        -0.0016779706347733736,
        -0.0014578187838196754,
        -0.0012376670492812991,
        -0.0010175150819122791,
        -0.0007973635219968855,
        -0.0005772116710431874,
        -0.00035705999471247196,
        -0.00013690807099919766,
        -0.005106192547827959,
        -0.004890028387308121,
        -0.004673864226788282,
        -0.004457700531929731,
        -0.004241536371409893,
        -0.004025372210890055,
        -0.0038092085160315037,
        -0.0035930443555116653,
        -0.003376880194991827,
        -0.0031607162673026323,
        -0.0029445525724440813,
        -0.0027283881790935993,
        -0.0025122242514044046,
        -0.0022960600908845663,
        -0.0020798963960260153,
        -0.0018637321190908551,
        -0.0016475681914016604,
        -0.001431404147297144,
        -0.0012152401031926274,
        -0.000999076059088111,
        -0.0007829121896065772,
        -0.0005667481455020607,
        -0.00035058424691669643,
        -0.0001344200863968581,
        -0.005011507775634527,
        -0.004799351096153259,
        -0.004587195813655853,
        -0.004375039599835873,
        -0.004162883851677179,
        -0.003950727637857199,
        -0.0037385716568678617,
        -0.003526415443047881,
        -0.0033142599277198315,
        -0.003102103713899851,
        -0.0028899479657411575,
        -0.002677791751921177,
        -0.00246563577093184,
        -0.0022534795571118593,
        -0.002041323808953166,
        -0.0018291677115485072,
        -0.0016170117305591702,
        -0.0014048557495698333,
        -0.0011926997685804963,
        -0.0009805437875911593,
        -0.0007683879230171442,
        -0.0005562318256124854,
        -0.00034407596103847027,
        -0.0001319198199780658,
        -0.004916345234960318,
        -0.004708217456936836,
        -0.004500089678913355,
        -0.0042919619008898735,
        -0.004083834122866392,
        -0.0038757063448429108,
        -0.003667578799650073,
        -0.0034594510216265917,
        -0.0032513232436031103,
        -0.003043195465579629,
        -0.0028350679203867912,
        -0.00262694014236331,
        -0.0024188123643398285,
        -0.002210684586316347,
        -0.0020025570411235094,
        -0.0017944291466847062,
        -0.0015863013686612248,
        -0.0013781735906377435,
        -0.001170045929029584,
        -0.0009619181510061026,
        -0.0007537906058132648,
        -0.0005456627695821226,
        -0.0003375351370777935,
        -0.00012940728629473597,
        -0.00482070492580533,
        -0.004616625607013702,
        -0.0044125462882220745,
        -0.004208467435091734,
        -0.004004388116300106,
        -0.003800308797508478,
        -0.0035962294787168503,
        -0.0033921501599252224,
        -0.003188071306794882,
        -0.002983991988003254,
        -0.002779912669211626,
        -0.002575833350419998,
        -0.0023717540316283703,
        -0.0021676747128367424,
        -0.001963595859706402,
        -0.0017595163080841303,
        -0.001555437222123146,
        -0.0013513579033315182,
        -0.001147278817370534,
        -0.0009431994403712451,
        -0.0007391202962026,
        -0.000535041035618633,
        -0.0003309618914499879,
        -0.00012688249989878386,
        -0.004724586848169565,
        -0.004524576477706432,
        -0.0043245661072432995,
        -0.004124555271118879,
        -0.0039245449006557465,
        -0.00372453429736197,
        -0.003524523926898837,
        -0.0033245133236050606,
        -0.003124502720311284,
        -0.002924492349848151,
        -0.0027244819793850183,
        -0.002524471376091242,
        -0.0023244607727974653,
        -0.0021244504023343325,
        -0.0019244399154558778,
        -0.0017244293121621013,
        -0.0015244188252836466,
        -0.001324408338405192,
        -0.001124397967942059,
        -0.0009243873064406216,
        -0.0007243769941851497,
        -0.0005243664490990341,
        -0.00032435604953207076,
        -0.00012434543168637902,
        -0.004627990536391735,
        -0.0044320691376924515,
        -0.004236147273331881,
        -0.004040226340293884,
        -0.0038443044759333134,
        -0.0036483830772340298,
        -0.0034524614457041025,
        -0.003256540047004819,
        -0.0030606186483055353,
        -0.002864697016775608,
        -0.002668775850906968,
        -0.002472854219377041,
        -0.0022769325878471136,
        -0.0020810109563171864,
        -0.0018850896740332246,
        -0.0016891681589186192,
        -0.001493246527388692,
        -0.0012973251286894083,
        -0.0011014036135748029,
        -0.0009054820402525365,
        -0.0007095606997609138,
        -0.0005136391264386475,
        -0.0003177177277393639,
        -0.00012179608893347904,
        -0.0045309169217944145,
        -0.004339104983955622,
        -0.004147292114794254,
        -0.0039554801769554615,
        -0.0037636677734553814,
        -0.0035718553699553013,
        -0.0033800434321165085,
        -0.0031882307957857847,
        -0.0029964186251163483,
        -0.002804606454446912,
        -0.0026127942837774754,
        -0.0024209818802773952,
        -0.002229169476777315,
        -0.0020373573061078787,
        -0.0018455450190231204,
        -0.001653732848353684,
        -0.0014619204448536038,
        -0.0012701081577688456,
        -0.001078295987099409,
        -0.000886483583599329,
        -0.0006946714711375535,
        -0.0005028591258451343,
        -0.0003110468969680369,
        -0.00011923449346795678,
        -0.004433365073055029,
        -0.004245682153850794,
        -0.004057999700307846,
        -0.003870316781103611,
        -0.0036826340947300196,
        -0.0034949511755257845,
        -0.0033072682563215494,
        -0.0031195853371173143,
        -0.002931902650743723,
        -0.0027442199643701315,
        -0.00255653727799654,
        -0.002368854358792305,
        -0.00218117143958807,
        -0.0019934887532144785,
        -0.0018058058340102434,
        -0.0016181230312213302,
        -0.001430440228432417,
        -0.0012427574256435037,
        -0.0010550747392699122,
        -0.0008673918200656772,
        -0.0006797091336920857,
        -0.0004920262726955116,
        -0.00030434352811425924,
        -0.00011666061618598178,
        -0.004335335455834866,
        -0.00415180204436183,
        -0.0039682695642113686,
        -0.003784735919907689,
        -0.0036012032069265842,
        -0.003417670028284192,
        -0.0032341370824724436,
        -0.0030506036709994078,
        -0.0028670707251876593,
        -0.0026835377793759108,
        -0.0025000046007335186,
        -0.00231647165492177,
        -0.002132938476279378,
        -0.0019494052976369858,
        -0.001765872468240559,
        -0.0015823391731828451,
        -0.001398805994540453,
        -0.0012152729323133826,
        -0.0010317399865016341,
        -0.0008482066914439201,
        -0.0006646738620474935,
        -0.00048114071250893176,
        -0.00029760770848952234,
        -0.00011407447891542688,
        -0.004236828535795212,
        -0.004057465121150017,
        -0.003878102172166109,
        -0.0036987389903515577,
        -0.0035193755757063627,
        -0.003340012626722455,
        -0.0031606496777385473,
        -0.0029812860302627087,
        -0.002801923081278801,
        -0.0026225601322948933,
        -0.002443196950480342,
        -0.002263834001496434,
        -0.002084470586851239,
        -0.0019051074050366879,
        -0.0017257443396374583,
        -0.001546381157822907,
        -0.0013670180924236774,
        -0.001187654910609126,
        -0.0010082918452098966,
        -0.0008289286051876843,
        -0.0006495655979961157,
        -0.00047020241618156433,
        -0.00029083937988616526,
        -0.0001114760889322497,
        -0.004137842915952206,
        -0.003962669987231493,
        -0.0037874970585107803,
        -0.0036123241297900677,
        -0.003437151201069355,
        -0.0032619782723486423,
        -0.0030868055764585733,
        -0.002911632414907217,
        -0.0027364594861865044,
        -0.0025612865574657917,
        -0.002386113628745079,
        -0.0022109407000243664,
        -0.0020357677713036537,
        -0.0018605947261676192,
        -0.0016854219138622284,
        -0.0015102489851415157,
        -0.0013350759400054812,
        -0.0011599030112847686,
        -0.000984730082564056,
        -0.0008095571538433433,
        -0.0006343842833302915,
        -0.00045921129640191793,
        -0.0002840384840965271,
        -0.00010886540985666215,
        -0.004038379993289709,
        -0.0038674173410981894,
        -0.0036964549217373133,
        -0.003525492502376437,
        -0.003354530083015561,
        -0.003183567663654685,
        -0.003012605244293809,
        -0.002841642592102289,
        -0.002670680172741413,
        -0.0024997175205498934,
        -0.0023287551011890173,
        -0.0021577924489974976,
        -0.0019868300296366215,
        -0.0018158674938604236,
        -0.0016449050744995475,
        -0.0014739424223080277,
        -0.0013029800029471517,
        -0.0011320174671709538,
        -0.0009610550478100777,
        -0.0007900924538262188,
        -0.0006191300926730037,
        -0.00044816749868914485,
        -0.00027720507932826877,
        -0.00010624247806845233,
        -0.0039384388364851475,
        -0.003771706949919462,
        -0.0036049752961844206,
        -0.003438243642449379,
        -0.0032715119887143373,
        -0.0031047798693180084,
        -0.002938048215582967,
        -0.0027713163290172815,
        -0.0026045844424515963,
        -0.002437852555885911,
        -0.002271121134981513,
        -0.002104389015585184,
        -0.0019376572454348207,
        -0.0017709254752844572,
        -0.0016041937051340938,
        -0.0014374618185684085,
        -0.0012707299320027232,
        -0.001103998045437038,
        -0.0009372663334943354,
        -0.0007705344469286501,
        -0.0006038027931936085,
        -0.0004370709357317537,
        -0.0002703392237890512,
        -0.00010360727173974738,
        -0.0038380201440304518,
        -0.003675539279356599,
        -0.0035130586475133896,
        -0.003350577550008893,
        -0.00318809668533504,
        -0.003025615820661187,
        -0.002863135188817978,
        -0.0027006538584828377,
        -0.0025381729938089848,
        -0.0023756923619657755,
        -0.0022132114972919226,
        -0.0020507306326180696,
        -0.001888249535113573,
        -0.0017257685540243983,
        -0.001563287922181189,
        -0.0014008069410920143,
        -0.0012383260764181614,
        -0.0010758452117443085,
        -0.0009133643470704556,
        -0.0007508833659812808,
        -0.0005884025595150888,
        -0.00042592157842591405,
        -0.0002634408010635525,
        -0.00010095980542246252,
        -0.0037371236830949783,
        -0.0035789136309176683,
        -0.0034207042772322893,
        -0.0032624946907162666,
        -0.0031042848713696003,
        -0.002946075052022934,
        -0.0027878654655069113,
        -0.002629655646160245,
        -0.0024714458268135786,
        -0.002313236240297556,
        -0.0021550264209508896,
        -0.001996816834434867,
        -0.0018386068986728787,
        -0.001680397312156856,
        -0.0015221876092255116,
        -0.001363977906294167,
        -0.0012057680869475007,
        -0.0010475583840161562,
        -0.0008893487392924726,
        -0.0007311389781534672,
        -0.0005729293334297836,
        -0.00041471957229077816,
        -0.0002565098984632641,
        -9.830007184064016e-05,
        -0.0036357492208480835,
        -0.0034818309359252453,
        -0.003327912651002407,
        -0.003173994366079569,
        -0.003020075848326087,
        -0.002866157563403249,
        -0.0027122395113110542,
        -0.0025583209935575724,
        -0.002404402708634734,
        -0.002250484423711896,
        -0.0020965663716197014,
        -0.0019426477374508977,
        -0.0017887294525280595,
        -0.0016348110511898994,
        -0.0014808929990977049,
        -0.0013269745977595448,
        -0.0011730563128367066,
        -0.0010191379114985466,
        -0.0008652196265757084,
        -0.0007113012252375484,
        -0.0005573831149376929,
        -0.00040346471359953284,
        -0.00024954648688435555,
        -9.562807099428028e-05,
        -0.003533896990120411,
        -0.0033842900302261114,
        -0.003234683535993099,
        -0.0030850765760987997,
        -0.002935470314696431,
        -0.0027858635876327753,
        -0.002636256627738476,
        -0.0024866501335054636,
        -0.0023370436392724514,
        -0.0021874369122087955,
        -0.0020378304179757833,
        -0.0018882235744968057,
        -0.0017386169638484716,
        -0.0015890103532001376,
        -0.0014394037425518036,
        -0.0012897970154881477,
        -0.0011401904048398137,
        -0.0009905836777761579,
        -0.0008409770671278238,
        -0.000691370340064168,
        -0.0005417637876234949,
        -0.0003921571478713304,
        -0.00024255053722299635,
        -9.294378833146766e-05,
        -0.003431566758081317,
        -0.0032862918451428413,
        -0.0031410171650350094,
        -0.0029957424849271774,
        -0.0028504678048193455,
        -0.00270519289188087,
        -0.002559918211773038,
        -0.002414643531665206,
        -0.0022693686187267303,
        -0.0021240939386188984,
        -0.0019788192585110664,
        -0.0018335443455725908,
        -0.0016882696654647589,
        -0.0015429947525262833,
        -0.0013977201888337731,
        -0.0012524453923106194,
        -0.0011071705957874656,
        -0.0009618957992643118,
        -0.0008166211191564798,
        -0.000671346322633326,
        -0.0005260716425254941,
        -0.00038079681689850986,
        -0.00023552212223876268,
        -9.024725295603275e-05,
        -0.0033287587575614452,
        -0.0031878359150141478,
        -0.0030469135381281376,
        -0.0029059909284114838,
        -0.00276506831869483,
        -0.002624145708978176,
        -0.0024832230992615223,
        -0.002342300256714225,
        -0.0022013778798282146,
        -0.002060455037280917,
        -0.0019195325439795852,
        -0.0017786099342629313,
        -0.0016376872081309557,
        -0.0014967645984143019,
        -0.001355841988697648,
        -0.0012149193789809942,
        -0.0010739968856796622,
        -0.0009330741595476866,
        -0.0007921516080386937,
        -0.0006512288236990571,
        -0.000510306388605386,
        -0.0003693837206810713,
        -0.00022846116917207837,
        -8.753845031606033e-05,
        -0.003225472755730152,
        -0.0030889224726706743,
        -0.002952372655272484,
        -0.0028158221393823624,
        -0.0026792718563228846,
        -0.0025427218060940504,
        -0.0024061715230345726,
        -0.002269621239975095,
        -0.002133070956915617,
        -0.001996520673856139,
        -0.0018599707400426269,
        -0.0017234202241525054,
        -0.0015868700575083494,
        -0.0014503197744488716,
        -0.0013137697242200375,
        -0.001177219208329916,
        -0.00104066904168576,
        -0.0009041188168339431,
        -0.0007675686501897871,
        -0.0006310182507149875,
        -0.0004944681422784925,
        -0.0003579178883228451,
        -0.0002213677071267739,
        -8.48173804115504e-05,
        -0.0031217094510793686,
        -0.002989551518112421,
        -0.002857394050806761,
        -0.002725236350670457,
        -0.0025930788833647966,
        -0.0024609211832284927,
        -0.0023287637159228325,
        -0.002196605782955885,
        -0.0020644483156502247,
        -0.0019322906155139208,
        -0.0018001332646235824,
        -0.0016679754480719566,
        -0.0015358177479356527,
        -0.0014036601642146707,
        -0.0012715026969090104,
        -0.0011393449967727065,
        -0.0010071874130517244,
        -0.0008750297711230814,
        -0.0007428721291944385,
        -0.0006107144872657955,
        -0.0004785569617524743,
        -0.0003463993198238313,
        -0.00021424175065476447,
        -8.208403596654534e-05,
        -0.0030174676794558764,
        -0.0028897228185087442,
        -0.002761977957561612,
        -0.00263423309661448,
        -0.0025064884684979916,
        -0.002378743840381503,
        -0.002250998979434371,
        -0.0021232543513178825,
        -0.0019955094903707504,
        -0.001867764862254262,
        -0.0017400202341377735,
        -0.0016122753731906414,
        -0.0014845306286588311,
        -0.0013567858841270208,
        -0.0012290411395952106,
        -0.0011012963950634003,
        -0.00097355165053159,
        -0.0008458068477921188,
        -0.0007180621614679694,
        -0.0005903173587284982,
        -0.0004625727015081793,
        -0.000334827956976369,
        -0.00020708327065221965,
        -7.933842425700277e-05,
        -0.00291274837218225,
        -0.0027894366066902876,
        -0.002666125074028969,
        -0.0025428133085370064,
        -0.0024195017758756876,
        -0.002296190010383725,
        -0.0021728784777224064,
        -0.002049566712230444,
        -0.0019262550631538033,
        -0.0018029435304924846,
        -0.001679631881415844,
        -0.0015563202323392034,
        -0.0014330086996778846,
        -0.0013096969341859221,
        -0.0011863854015246034,
        -0.001063073636032641,
        -0.0009397619869560003,
        -0.0008164504542946815,
        -0.00069313874701038,
        -0.0005698270397260785,
        -0.0004465155361685902,
        -0.0003232038579881191,
        -0.00019989228167105466,
        -7.658055983483791e-05,
        -0.0028075510635972023,
        -0.0026886926498264074,
        -0.0025698342360556126,
        -0.0024509760551154613,
        -0.00233211787417531,
        -0.0022132594604045153,
        -0.002094401279464364,
        -0.001975542865693569,
        -0.001856684684753418,
        -0.001737826387397945,
        -0.0016189682064577937,
        -0.0015001099091023207,
        -0.0013812514953315258,
        -0.0012623931979760528,
        -0.0011435350170359015,
        -0.0010246767196804285,
        -0.0009058183641172945,
        -0.0007869601249694824,
        -0.0006681018858216703,
        -0.0005492435302585363,
        -0.00043038532021455467,
        -0.0003115270228590816,
        -0.00019266876915935427,
        -7.381041359622031e-05,
        -0.002701875986531377,
        -0.002587491413578391,
        -0.0024731066077947617,
        -0.002358722034841776,
        -0.00224433746188879,
        -0.002129952423274517,
        -0.0020155678503215313,
        -0.0019011830445379019,
        -0.0017867984715849161,
        -0.0016724137822166085,
        -0.0015580292092636228,
        -0.0014436442870646715,
        -0.0013292597141116858,
        -0.0012148749083280563,
        -0.0011004903353750706,
        -0.000986105646006763,
        -0.0008717208984307945,
        -0.000757336150854826,
        -0.0006429515196941793,
        -0.0005285667721182108,
        -0.00041418217006139457,
        -0.00029979742248542607,
        -0.0001854127913247794,
        -7.102800736902282e-05,
        -0.0025957231409847736,
        -0.002485831966623664,
        -0.0023759412579238415,
        -0.0022660503163933754,
        -0.002156159607693553,
        -0.002046268666163087,
        -0.0019363777246326208,
        -0.0018264870159327984,
        -0.0017165961908176541,
        -0.0016067053657025099,
        -0.0014968145405873656,
        -0.0013869235990568995,
        -0.0012770327739417553,
        -0.0011671418324112892,
        -0.001057251007296145,
        -0.0009473601821810007,
        -0.0008374693570658565,
        -0.0007275784737430513,
        -0.000617687648627907,
        -0.0005077967653051019,
        -0.0003979059692937881,
        -0.0002880150859709829,
        -0.00017812426085583866,
        -6.82333338772878e-05,
        -0.002489092294126749,
        -0.002383715473115444,
        -0.0022783386521041393,
        -0.002172962063923478,
        -0.0020675852429121733,
        -0.0019622084219008684,
        -0.0018568317173048854,
        -0.0017514548962935805,
        -0.0016460779588669538,
        -0.0015407013706862926,
        -0.0014353246660903096,
        -0.0013299478450790048,
        -0.0012245710240677,
        -0.001119194203056395,
        -0.001013817498460412,
        -0.0009084406774491072,
        -0.0008030638564378023,
        -0.0006976870354264975,
        -0.0005923102726228535,
        -0.0004869335098192096,
        -0.0003815567761193961,
        -0.0002761799842119217,
        -0.0001708032505121082,
        -6.542639312101528e-05,
        -0.0023819836787879467,
        -0.0022811410017311573,
        -0.002180298790335655,
        -0.0020794563461095095,
        -0.0019786139018833637,
        -0.0018777713412418962,
        -0.0017769288970157504,
        -0.0016760863363742828,
        -0.001575244008563459,
        -0.0014744014479219913,
        -0.0013735591201111674,
        -0.0012727166758850217,
        -0.0011718741152435541,
        -0.0010710316710174084,
        -0.0009701893432065845,
        -0.0008693467825651169,
        -0.0007685043383389711,
        -0.0006676618941128254,
        -0.0005668194498866796,
        -0.000465976947452873,
        -0.0003651346196420491,
        -0.0002642921172082424,
        -0.00016344970208592713,
        -6.260717782424763e-05,
        -0.0022743972949683666,
        -0.0021781092509627342,
        -0.002081821672618389,
        -0.0019855336286127567,
        -0.0018892457010224462,
        -0.0017929577734321356,
        -0.001696669845841825,
        -0.0016003819182515144,
        -0.0015040941070765257,
        -0.001407806295901537,
        -0.0013115184847265482,
        -0.0012152304407209158,
        -0.0011189425131306052,
        -0.0010226545855402946,
        -0.0009263667743653059,
        -0.0008300788467749953,
        -0.0007337909773923457,
        -0.0006375030498020351,
        -0.0005412151804193854,
        -0.0004449272819329053,
        -0.0003486394416540861,
        -0.00025235151406377554,
        -0.00015606367378495634,
        -5.9775706176878884e-05,
        -0.002166332909837365,
        -0.0020746199879795313,
        -0.0019829068332910538,
        -0.0018911936786025763,
        -0.0017994807567447424,
        -0.0017077676020562649,
        -0.0016160545637831092,
        -0.0015243414090946317,
        -0.001432628370821476,
        -0.0013409153325483203,
        -0.0012492021778598428,
        -0.0011574890231713653,
        -0.0010657758684828877,
        -0.0009740627720020711,
        -0.0008823497919365764,
        -0.0007906366954557598,
        -0.0006989235989749432,
        -0.0006072105024941266,
        -0.0005154974642209709,
        -0.0004237842804286629,
        -0.00033207127125933766,
        -0.00024035816022660583,
        -0.00014864510740153491,
        -5.693195998901501e-05,
        -0.0020577909890562296,
        -0.001970672747120261,
        -0.0018835547380149364,
        -0.0017964367289096117,
        -0.001709318719804287,
        -0.0016222005942836404,
        -0.0015350827015936375,
        -0.001447964459657669,
        -0.0013608464505523443,
        -0.0012737284414470196,
        -0.0011866104323416948,
        -0.00109949242323637,
        -0.0010123742977157235,
        -0.0009252562886103988,
        -0.0008381383377127349,
        -0.0007510202703997493,
        -0.0006639022612944245,
        -0.000576784135773778,
        -0.0004896661848761141,
        -0.00040254805935546756,
        -0.0003154301084578037,
        -0.0002283120556967333,
        -0.00014119404659140855,
        -5.4075950174592435e-05,
        -0.0019487707177177072,
        -0.0018662677612155676,
        -0.0017837652703747153,
        -0.0017012624302878976,
        -0.0016187598230317235,
        -0.0015362569829449058,
        -0.0014537542592734098,
        -0.001371251419186592,
        -0.001288748811930418,
        -0.001206246088258922,
        -0.0011237433645874262,
        -0.0010412405245006084,
        -0.0009587378008291125,
        -0.0008762350771576166,
        -0.0007937323534861207,
        -0.0007112295716069639,
        -0.000628726847935468,
        -0.0005462240660563111,
        -0.00046372140059247613,
        -0.0003812186187133193,
        -0.00029871592414565384,
        -0.00021621317137032747,
        -0.0001337104622507468,
        -5.120767673361115e-05,
        -0.0018392730271443725,
        -0.0017614056123420596,
        -0.0016835385467857122,
        -0.0016056712483987212,
        -0.0015278041828423738,
        -0.0014499368844553828,
        -0.0013720697024837136,
        -0.0012942025205120444,
        -0.0012163352221250534,
        -0.0011384680401533842,
        -0.001060600858181715,
        -0.0009827336762100458,
        -0.0009048664360307157,
        -0.0008269991958513856,
        -0.0007491320720873773,
        -0.0006712648319080472,
        -0.000593397649936378,
        -0.0005155304097570479,
        -0.00043766319868154824,
        -0.00035979592939838767,
        -0.0002819288056343794,
        -0.0002040615800069645,
        -0.0001261943980352953,
        -4.832713239011355e-05,
        -0.0017292973352596164,
        -0.00165608583483845,
        -0.0015828743344172835,
        -0.001509662950411439,
        -0.0014364515664055943,
        -0.001363240065984428,
        -0.0012900286819785833,
        -0.0012168172979727387,
        -0.0011436057975515723,
        -0.0010703944135457277,
        -0.0009971830295398831,
        -0.0009239715291187167,
        -0.0008507600286975503,
        -0.0007775485864840448,
        -0.0007043372606858611,
        -0.0006311257602646947,
        -0.0005579143762588501,
        -0.00048470290494151413,
        -0.00041149146272800863,
        -0.0003382800205145031,
        -0.00026506863650865853,
        -0.00019185720884706825,
        -0.00011864580301335081,
        -4.543431714409962e-05,
        -0.001618843642063439,
        -0.0015503083122894168,
        -0.0014817728661000729,
        -0.001413237419910729,
        -0.0013447022065520287,
        -0.001276166643947363,
        -0.001207631197758019,
        -0.001139095751568675,
        -0.001070560421794653,
        -0.0010020250920206308,
        -0.0009334896458312869,
        -0.000864954199641943,
        -0.000796418753452599,
        -0.000727883365470916,
        -0.000659347977489233,
        -0.0005908125312998891,
        -0.0005222771433182061,
        -0.0004537417262326926,
        -0.0003852063091471791,
        -0.0003166708629578352,
        -0.00024813550407998264,
        -0.00017960008699446917,
        -0.00011106469901278615,
        -4.252923827152699e-05,
        -0.0015079124132171273,
        -0.0014440732775256038,
        -0.0013802341418340802,
        -0.0013163950061425567,
        -0.0012525558704510331,
        -0.0011887166183441877,
        -0.001124877599067986,
        -0.0010610383469611406,
        -0.000997199327684939,
        -0.0009333600755780935,
        -0.00086952093988657,
        -0.0008056816877797246,
        -0.000741842552088201,
        -0.0006780034746043384,
        -0.0006141643389128149,
        -0.0005503251450136304,
        -0.00048648600932210684,
        -0.00042264681542292237,
        -0.0003588077088352293,
        -0.00029496848583221436,
        -0.0002311293937964365,
        -0.00016729021444916725,
        -0.00010345109330955893,
        -3.9611895772395656e-05,
        -0.0013965031830593944,
        -0.0013373803813010454,
        -0.0012782578123733401,
        -0.001219135127030313,
        -0.0011600125581026077,
        -0.0011008898727595806,
        -0.0010417673038318753,
        -0.0009826446184888482,
        -0.000923521991353482,
        -0.0008643993060104549,
        -0.0008052767370827496,
        -0.0007461540517397225,
        -0.0006870313663966954,
        -0.0006279086810536683,
        -0.000568786112125963,
        -0.0005096634267829359,
        -0.0004505408287514001,
        -0.000391418143408373,
        -0.0003322955162730068,
        -0.00027317286003381014,
        -0.00021405023289844394,
        -0.00015492757665924728,
        -9.58049640757963e-05,
        -3.668227873276919e-05,
        -0.0012846160680055618,
        -0.001230230089277029,
        -0.00117584434337914,
        -0.0011214583646506071,
        -0.0010670725023373961,
        -0.0010126865236088634,
        -0.0009583006612956524,
        -0.0009039147989824414,
        -0.0008495289366692305,
        -0.0007951429579406977,
        -0.0007407570956274867,
        -0.0006863711751066148,
        -0.0006319853127934039,
        -0.000577599392272532,
        -0.000523213529959321,
        -0.0004688276385422796,
        -0.0004144417180214077,
        -0.00036005579750053585,
        -0.0003056699060834944,
        -0.00025128398556262255,
        -0.0001968981378013268,
        -0.0001425122027285397,
        -8.812634041532874e-05,
        -3.374040170456283e-05,
        -0.0011722511844709516,
        -0.001122622168622911,
        -0.001072993385605514,
        -0.0010233644861727953,
        -0.0009737355867400765,
        -0.0009241066290996969,
        -0.000874477787874639,
        -0.0008248488302342594,
        -0.0007752199308015406,
        -0.0007255910313688219,
        -0.0006759621319361031,
        -0.0006263331742957234,
        -0.0005767042748630047,
        -0.0005270753754302859,
        -0.0004774464759975672,
        -0.00042781754746101797,
        -0.0003781886480282992,
        -0.00032855971949175,
        -0.00027893082005903125,
        -0.00022930189152248204,
        -0.0001796730066416785,
        -0.00013004409265704453,
        -8.041520050028339e-05,
        -3.078625741181895e-05,
        -0.0010594084160402417,
        -0.0010145566193386912,
        -0.0009697051136754453,
        -0.0009248533751815557,
        -0.0008800016948953271,
        -0.0008351500146090984,
        -0.0007902983925305307,
        -0.0007454466540366411,
        -0.0007005950319580734,
        -0.0006557433516718447,
        -0.0006108916713856161,
        -0.0005660399910993874,
        -0.0005211882526054978,
        -0.0004763366305269301,
        -0.0004314849793445319,
        -0.0003866332408506423,
        -0.0003417816187720746,
        -0.00029692990938201547,
        -0.0002520782290957868,
        -0.00020722653425764292,
        -0.00016237489762715995,
        -0.00011752320278901607,
        -7.267155160661787e-05,
        -2.7819838578579947e-05,
        -0.0009460877045057714,
        -0.0009060334996320307,
        -0.000865979352965951,
        -0.0008259251480922103,
        -0.0007858709432184696,
        -0.0007458167965523899,
        -0.0007057625916786492,
        -0.0006657083285972476,
        -0.0006256541819311678,
        -0.0005855999770574272,
        -0.0005455457721836865,
        -0.0005054915673099458,
        -0.0004654373333323747,
        -0.0004253831575624645,
        -0.00038532898179255426,
        -0.0003452747769188136,
        -0.0003052205720450729,
        -0.00026516636717133224,
        -0.00022511216229759157,
        -0.00018505794287193567,
        -0.00014500378165394068,
        -0.00010494956950424239,
        -6.489538645837456e-05,
        -2.484115793777164e-05,
        -0.0008322893991135061,
        -0.0007970528677105904,
        -0.0007618163945153356,
        -0.0007265799213200808,
        -0.000691343448124826,
        -0.0006561069167219102,
        -0.0006208704435266554,
        -0.0005856339703314006,
        -0.0005503974971361458,
        -0.000515161023940891,
        -0.00047992452164180577,
        -0.00044468804844655097,
        -0.0004094515461474657,
        -0.00037421504384838045,
        -0.00033897857065312564,
        -0.00030374209745787084,
        -0.00026850562426261604,
        -0.00023326912196353078,
        -0.00019803264876827598,
